<?xml version="1.0"?>
<opencv_storage>
<cascade>
  <stageType>BOOST</stageType>
  <featureType>HAAR</featureType>
  <height>20</height>
  <width>20</width>
  <stageParams>
    <boostType>GAB</boostType>
    <minHitRate>9.9900001287460327e-01</minHitRate>
    <maxFalseAlarm>5.0000000745058060e-02</maxFalseAlarm>
    <weightTrimRate>9.4999999999999996e-01</weightTrimRate>
    <maxDepth>1</maxDepth>
    <maxWeakCount>100</maxWeakCount></stageParams>
  <featureParams>
    <maxCatCount>0</maxCatCount>
    <featSize>1</featSize>
    <mode>ALL</mode></featureParams>
  <stageNum>3</stageNum>
  <stages>
    <!-- stage 0 -->
    <_>
      <maxWeakCount>7</maxWeakCount>
      <stageThreshold>-4.5309281349182129e-01</stageThreshold>
      <weakClassifiers>
        <_>
          <internalNodes>
            0 -1 7 1.2949889525771141e-02</internalNodes>
          <leafValues>
            -6.7883211374282837e-01 8.2300883531570435e-01</leafValues></_>
        <_>
          <internalNodes>
            0 -1 14 -1.5339092351496220e-02</internalNodes>
          <leafValues>
            7.0002794265747070e-01 -7.7479028701782227e-01</leafValues></_>
        <_>
          <internalNodes>
            0 -1 6 -2.5477383285760880e-02</internalNodes>
          <leafValues>
            9.8317760229110718e-01 -5.5473607778549194e-01</leafValues></_>
        <_>
          <internalNodes>
            0 -1 3 -1.0745028965175152e-02</internalNodes>
          <leafValues>
            6.6688698530197144e-01 -7.4782198667526245e-01</leafValues></_>
        <_>
          <internalNodes>
            0 -1 13 -1.7366692423820496e-02</internalNodes>
          <leafValues>
            9.2812967300415039e-01 -5.6896674633026123e-01</leafValues></_>
        <_>
          <internalNodes>
            0 -1 0 3.4647881984710693e-03</internalNodes>
          <leafValues>
            -9.1807574033737183e-01 5.7116550207138062e-01</leafValues></_>
        <_>
          <internalNodes>
            0 -1 10 -3.0135004781186581e-03</internalNodes>
          <leafValues>
            8.8617992401123047e-01 -5.2387571334838867e-01</leafValues></_></weakClassifiers></_>
    <!-- stage 1 -->
    <_>
      <maxWeakCount>5</maxWeakCount>
      <stageThreshold>4.2391024529933929e-02</stageThreshold>
      <weakClassifiers>
        <_>
          <internalNodes>
            0 -1 4 3.6494708620011806e-03</internalNodes>
          <leafValues>
            -5.5735057592391968e-01 9.0551179647445679e-01</leafValues></_>
        <_>
          <internalNodes>
            0 -1 8 -2.5102186948060989e-02</internalNodes>
          <leafValues>
            9.7607481479644775e-01 -4.0519061684608459e-01</leafValues></_>
        <_>
          <internalNodes>
            0 -1 2 -5.5590784177184105e-03</internalNodes>
          <leafValues>
            9.4383823871612549e-01 -3.9021769165992737e-01</leafValues></_>
        <_>
          <internalNodes>
            0 -1 16 -2.1869811462238431e-05</internalNodes>
          <leafValues>
            -1. 5.0851082801818848e-01</leafValues></_>
        <_>
          <internalNodes>
            0 -1 12 -6.4102220349013805e-03</internalNodes>
          <leafValues>
            9.8407793045043945e-01 -4.4741684198379517e-01</leafValues></_></weakClassifiers></_>
    <!-- stage 2 -->
    <_>
      <maxWeakCount>7</maxWeakCount>
      <stageThreshold>4.1306915879249573e-01</stageThreshold>
      <weakClassifiers>
        <_>
          <internalNodes>
            0 -1 17 6.2988554418552667e-05</internalNodes>
          <leafValues>
            5.5447155237197876e-01 -8.8571429252624512e-01</leafValues></_>
        <_>
          <internalNodes>
            0 -1 9 5.0105750560760498e-03</internalNodes>
          <leafValues>
            -5.9581798315048218e-01 8.4047740697860718e-01</leafValues></_>
        <_>
          <internalNodes>
            0 -1 5 3.7537598982453346e-03</internalNodes>
          <leafValues>
            4.6950122714042664e-01 -9.9029994010925293e-01</leafValues></_>
        <_>
          <internalNodes>
            0 -1 1 -5.0135731697082520e-02</internalNodes>
          <leafValues>
            9.7833734750747681e-01 -4.5938041806221008e-01</leafValues></_>
        <_>
          <internalNodes>
            0 -1 11 4.2045535519719124e-03</internalNodes>
          <leafValues>
            -4.6718123555183411e-01 9.4836258888244629e-01</leafValues></_>
        <_>
          <internalNodes>
            0 -1 15 -2.0882214812445454e-05</internalNodes>
          <leafValues>
            -1. 5.1558685302734375e-01</leafValues></_>
        <_>
          <internalNodes>
            0 -1 15 3.6479206755757332e-05</internalNodes>
          <leafValues>
            4.2053109407424927e-01 -1.</leafValues></_></weakClassifiers></_></stages>
  <features>
    <_>
      <rects>
        <_>
          0 0 4 20 -1.</_>
        <_>
          2 0 2 20 2.</_></rects>
      <tilted>0</tilted></_>
    <_>
      <rects>
        <_>
          5 1 15 3 -1.</_>
        <_>
          4 2 15 1 3.</_></rects>
      <tilted>1</tilted></_>
    <_>
      <rects>
        <_>
          5 7 1 3 -1.</_>
        <_>
          5 8 1 1 3.</_></rects>
      <tilted>0</tilted></_>
    <_>
      <rects>
        <_>
          7 9 6 3 -1.</_>
        <_>
          9 10 2 1 9.</_></rects>
      <tilted>0</tilted></_>
    <_>
      <rects>
        <_>
          7 14 3 1 -1.</_>
        <_>
          8 14 1 1 3.</_></rects>
      <tilted>0</tilted></_>
    <_>
      <rects>
        <_>
          8 1 12 6 -1.</_>
        <_>
          14 1 6 6 2.</_></rects>
      <tilted>0</tilted></_>
    <_>
      <rects>
        <_>
          8 5 3 3 -1.</_>
        <_>
          9 6 1 1 9.</_></rects>
      <tilted>0</tilted></_>
    <_>
      <rects>
        <_>
          9 7 3 3 -1.</_>
        <_>
          10 8 1 1 9.</_></rects>
      <tilted>0</tilted></_>
    <_>
      <rects>
        <_>
          9 12 3 3 -1.</_>
        <_>
          10 13 1 1 9.</_></rects>
      <tilted>0</tilted></_>
    <_>
      <rects>
        <_>
          10 5 3 1 -1.</_>
        <_>
          11 5 1 1 3.</_></rects>
      <tilted>0</tilted></_>
    <_>
      <rects>
        <_>
          10 10 2 2 -1.</_>
        <_>
          10 10 1 1 2.</_>
        <_>
          11 11 1 1 2.</_></rects>
      <tilted>0</tilted></_>
    <_>
      <rects>
        <_>
          11 11 2 2 -1.</_>
        <_>
          11 11 1 1 2.</_>
        <_>
          12 12 1 1 2.</_></rects>
      <tilted>0</tilted></_>
    <_>
      <rects>
        <_>
          12 11 1 3 -1.</_>
        <_>
          12 12 1 1 3.</_></rects>
      <tilted>0</tilted></_>
    <_>
      <rects>
        <_>
          13 10 3 3 -1.</_>
        <_>
          14 11 1 1 9.</_></rects>
      <tilted>0</tilted></_>
    <_>
      <rects>
        <_>
          16 1 4 18 -1.</_>
        <_>
          18 1 2 18 2.</_></rects>
      <tilted>0</tilted></_>
    <_>
      <rects>
        <_>
          18 0 2 1 -1.</_>
        <_>
          19 0 1 1 2.</_></rects>
      <tilted>0</tilted></_>
    <_>
      <rects>
        <_>
          19 0 1 4 -1.</_>
        <_>
          19 2 1 2 2.</_></rects>
      <tilted>0</tilted></_>
    <_>
      <rects>
        <_>
          19 1 1 2 -1.</_>
        <_>
          19 2 1 1 2.</_></rects>
      <tilted>0</tilted></_></features></cascade>
</opencv_storage>
