<?xml version="1.0"?>
<opencv_storage>
<stage0>
  <maxWeakCount>6</maxWeakCount>
  <stageThreshold>1.7175778746604919e-01</stageThreshold>
  <weakClassifiers>
    <_>
      <internalNodes>
        0 -1 68325 4.3396400287747383e-03</internalNodes>
      <leafValues>
        -6.1904764175415039e-01 8.8349515199661255e-01</leafValues></_>
    <_>
      <internalNodes>
        0 -1 85394 2.2029862739145756e-03</internalNodes>
      <leafValues>
        -5.9965646266937256e-01 8.4099972248077393e-01</leafValues></_>
    <_>
      <internalNodes>
        0 -1 443 1.8507391214370728e-02</internalNodes>
      <leafValues>
        -9.7780126333236694e-01 5.2903729677200317e-01</leafValues></_>
    <_>
      <internalNodes>
        0 -1 84171 4.7832913696765900e-03</internalNodes>
      <leafValues>
        -4.8881974816322327e-01 9.4806671142578125e-01</leafValues></_>
    <_>
      <internalNodes>
        0 -1 79235 -1.1505358852446079e-02</internalNodes>
      <leafValues>
        9.8870164155960083e-01 -6.0233765840530396e-01</leafValues></_>
    <_>
      <internalNodes>
        0 -1 81787 2.8333034366369247e-02</internalNodes>
      <leafValues>
        5.8187788724899292e-01 -9.7428202629089355e-01</leafValues></_></weakClassifiers></stage0>
</opencv_storage>
