<?xml version="1.0"?>
<opencv_storage>
<stage1>
  <maxWeakCount>8</maxWeakCount>
  <stageThreshold>-8.8014698028564453e-01</stageThreshold>
  <weakClassifiers>
    <_>
      <internalNodes>
        0 -1 65434 -3.8148552179336548e-02</internalNodes>
      <leafValues>
        -9.8391419649124146e-01 5.8532696962356567e-01</leafValues></_>
    <_>
      <internalNodes>
        0 -1 93031 4.2640925385057926e-03</internalNodes>
      <leafValues>
        -6.6194665431976318e-01 8.3975201845169067e-01</leafValues></_>
    <_>
      <internalNodes>
        0 -1 91457 -2.4007782340049744e-03</internalNodes>
      <leafValues>
        7.8740173578262329e-01 -6.2957388162612915e-01</leafValues></_>
    <_>
      <internalNodes>
        0 -1 27743 1.1436411179602146e-02</internalNodes>
      <leafValues>
        -8.1334376335144043e-01 6.0917556285858154e-01</leafValues></_>
    <_>
      <internalNodes>
        0 -1 919 8.9308917522430420e-03</internalNodes>
      <leafValues>
        -9.6349155902862549e-01 4.5392221212387085e-01</leafValues></_>
    <_>
      <internalNodes>
        0 -1 52224 -5.8282697573304176e-03</internalNodes>
      <leafValues>
        9.4367140531539917e-01 -4.8917058110237122e-01</leafValues></_>
    <_>
      <internalNodes>
        0 -1 108908 1.1024506762623787e-02</internalNodes>
      <leafValues>
        -5.2840465307235718e-01 9.6415507793426514e-01</leafValues></_>
    <_>
      <internalNodes>
        0 -1 109344 -5.6837596930563450e-03</internalNodes>
      <leafValues>
        9.8842632770538330e-01 -3.7380126118659973e-01</leafValues></_></weakClassifiers></stage1>
</opencv_storage>
