<?xml version="1.0"?>
<opencv_storage>
<stage2>
  <maxWeakCount>7</maxWeakCount>
  <stageThreshold>4.1306915879249573e-01</stageThreshold>
  <weakClassifiers>
    <_>
      <internalNodes>
        0 -1 124844 6.2988554418552667e-05</internalNodes>
      <leafValues>
        5.5447155237197876e-01 -8.8571429252624512e-01</leafValues></_>
    <_>
      <internalNodes>
        0 -1 90021 5.0105750560760498e-03</internalNodes>
      <leafValues>
        -5.9581798315048218e-01 8.4047740697860718e-01</leafValues></_>
    <_>
      <internalNodes>
        0 -1 73450 3.7537598982453346e-03</internalNodes>
      <leafValues>
        4.6950122714042664e-01 -9.9029994010925293e-01</leafValues></_>
    <_>
      <internalNodes>
        0 -1 48798 -5.0135731697082520e-02</internalNodes>
      <leafValues>
        9.7833734750747681e-01 -4.5938041806221008e-01</leafValues></_>
    <_>
      <internalNodes>
        0 -1 98823 4.2045535519719124e-03</internalNodes>
      <leafValues>
        -4.6718123555183411e-01 9.4836258888244629e-01</leafValues></_>
    <_>
      <internalNodes>
        0 -1 123552 -2.0882214812445454e-05</internalNodes>
      <leafValues>
        -1. 5.1558685302734375e-01</leafValues></_>
    <_>
      <internalNodes>
        0 -1 123552 3.6479206755757332e-05</internalNodes>
      <leafValues>
        4.2053109407424927e-01 -1.</leafValues></_></weakClassifiers></stage2>
</opencv_storage>
