<?xml version="1.0"?>
<opencv_storage>
<stage1>
  <maxWeakCount>5</maxWeakCount>
  <stageThreshold>4.2391024529933929e-02</stageThreshold>
  <weakClassifiers>
    <_>
      <internalNodes>
        0 -1 71481 3.6494708620011806e-03</internalNodes>
      <leafValues>
        -5.5735057592391968e-01 9.0551179647445679e-01</leafValues></_>
    <_>
      <internalNodes>
        0 -1 86004 -2.5102186948060989e-02</internalNodes>
      <leafValues>
        9.7607481479644775e-01 -4.0519061684608459e-01</leafValues></_>
    <_>
      <internalNodes>
        0 -1 52224 -5.5590784177184105e-03</internalNodes>
      <leafValues>
        9.4383823871612549e-01 -3.9021769165992737e-01</leafValues></_>
    <_>
      <internalNodes>
        0 -1 124810 -2.1869811462238431e-05</internalNodes>
      <leafValues>
        -1. 5.0851082801818848e-01</leafValues></_>
    <_>
      <internalNodes>
        0 -1 104635 -6.4102220349013805e-03</internalNodes>
      <leafValues>
        9.8407793045043945e-01 -4.4741684198379517e-01</leafValues></_></weakClassifiers></stage1>
</opencv_storage>
