<?xml version="1.0"?>
<opencv_storage>
<stage2>
  <maxWeakCount>6</maxWeakCount>
  <stageThreshold>6.8178123235702515e-01</stageThreshold>
  <weakClassifiers>
    <_>
      <internalNodes>
        0 -1 96407 1.4439202845096588e-02</internalNodes>
      <leafValues>
        4.8114630579948425e-01 -9.4658756256103516e-01</leafValues></_>
    <_>
      <internalNodes>
        0 -1 53715 -6.2776338309049606e-03</internalNodes>
      <leafValues>
        9.1345268487930298e-01 -5.4140830039978027e-01</leafValues></_>
    <_>
      <internalNodes>
        0 -1 123570 3.6707453546114266e-05</internalNodes>
      <leafValues>
        4.8971128463745117e-01 -9.9682807922363281e-01</leafValues></_>
    <_>
      <internalNodes>
        0 -1 98819 4.7615533694624901e-03</internalNodes>
      <leafValues>
        -5.3794610500335693e-01 8.4776085615158081e-01</leafValues></_>
    <_>
      <internalNodes>
        0 -1 123562 -3.7261732359183952e-05</internalNodes>
      <leafValues>
        -1. 4.8984616994857788e-01</leafValues></_>
    <_>
      <internalNodes>
        0 -1 98 1.0321642184862867e-04</internalNodes>
      <leafValues>
        3.4245878458023071e-01 -9.8745417594909668e-01</leafValues></_></weakClassifiers></stage2>
</opencv_storage>
