<?xml version="1.0"?>
<opencv_storage>
<stage2>
<<<<<<< HEAD
  <maxWeakCount>6</maxWeakCount>
  <stageThreshold>6.8178123235702515e-01</stageThreshold>
  <weakClassifiers>
    <_>
      <internalNodes>
        0 -1 96407 1.4439202845096588e-02</internalNodes>
      <leafValues>
        4.8114630579948425e-01 -9.4658756256103516e-01</leafValues></_>
    <_>
      <internalNodes>
        0 -1 53715 -6.2776338309049606e-03</internalNodes>
      <leafValues>
        9.1345268487930298e-01 -5.4140830039978027e-01</leafValues></_>
    <_>
      <internalNodes>
        0 -1 123570 3.6707453546114266e-05</internalNodes>
      <leafValues>
        4.8971128463745117e-01 -9.9682807922363281e-01</leafValues></_>
    <_>
      <internalNodes>
        0 -1 98819 4.7615533694624901e-03</internalNodes>
      <leafValues>
        -5.3794610500335693e-01 8.4776085615158081e-01</leafValues></_>
    <_>
      <internalNodes>
        0 -1 123562 -3.7261732359183952e-05</internalNodes>
      <leafValues>
        -1. 4.8984616994857788e-01</leafValues></_>
    <_>
      <internalNodes>
        0 -1 98 1.0321642184862867e-04</internalNodes>
      <leafValues>
        3.4245878458023071e-01 -9.8745417594909668e-01</leafValues></_></weakClassifiers></stage2>
=======
  <maxWeakCount>7</maxWeakCount>
  <stageThreshold>4.1306915879249573e-01</stageThreshold>
  <weakClassifiers>
    <_>
      <internalNodes>
        0 -1 124844 6.2988554418552667e-05</internalNodes>
      <leafValues>
        5.5447155237197876e-01 -8.8571429252624512e-01</leafValues></_>
    <_>
      <internalNodes>
        0 -1 90021 5.0105750560760498e-03</internalNodes>
      <leafValues>
        -5.9581798315048218e-01 8.4047740697860718e-01</leafValues></_>
    <_>
      <internalNodes>
        0 -1 73450 3.7537598982453346e-03</internalNodes>
      <leafValues>
        4.6950122714042664e-01 -9.9029994010925293e-01</leafValues></_>
    <_>
      <internalNodes>
        0 -1 48798 -5.0135731697082520e-02</internalNodes>
      <leafValues>
        9.7833734750747681e-01 -4.5938041806221008e-01</leafValues></_>
    <_>
      <internalNodes>
        0 -1 98823 4.2045535519719124e-03</internalNodes>
      <leafValues>
        -4.6718123555183411e-01 9.4836258888244629e-01</leafValues></_>
    <_>
      <internalNodes>
        0 -1 123552 -2.0882214812445454e-05</internalNodes>
      <leafValues>
        -1. 5.1558685302734375e-01</leafValues></_>
    <_>
      <internalNodes>
        0 -1 123552 3.6479206755757332e-05</internalNodes>
      <leafValues>
        4.2053109407424927e-01 -1.</leafValues></_></weakClassifiers></stage2>
>>>>>>> f1262cf1719e5a499b78f72ad20710318f1acce3
</opencv_storage>
