<?xml version="1.0"?>
<opencv_storage>
<stage0>
  <maxWeakCount>7</maxWeakCount>
  <stageThreshold>-4.1795319318771362e-01</stageThreshold>
  <weakClassifiers>
    <_>
      <internalNodes>
        0 -1 84176 1.2887097895145416e-02</internalNodes>
      <leafValues>
        -7.0686453580856323e-01 8.2646423578262329e-01</leafValues></_>
    <_>
      <internalNodes>
        0 -1 98819 4.0323813445866108e-03</internalNodes>
      <leafValues>
        -5.5826777219772339e-01 9.2290663719177246e-01</leafValues></_>
    <_>
      <internalNodes>
        0 -1 9444 1.7729513347148895e-02</internalNodes>
      <leafValues>
        -9.4611924886703491e-01 5.9329313039779663e-01</leafValues></_>
    <_>
      <internalNodes>
        0 -1 69940 -1.7433699220418930e-02</internalNodes>
      <leafValues>
        5.9270751476287842e-01 -7.4939298629760742e-01</leafValues></_>
    <_>
      <internalNodes>
        0 -1 71252 4.9076946452260017e-03</internalNodes>
      <leafValues>
        -5.3072315454483032e-01 9.3105030059814453e-01</leafValues></_>
    <_>
      <internalNodes>
        0 -1 84171 4.9087456427514553e-03</internalNodes>
      <leafValues>
        -5.6852889060974121e-01 9.5238733291625977e-01</leafValues></_>
    <_>
      <internalNodes>
        0 -1 9856 -2.5707702661748044e-05</internalNodes>
      <leafValues>
        -1. 6.4075756072998047e-01</leafValues></_></weakClassifiers></stage0>
</opencv_storage>
